<?xml version="1.0"?>
<opencv_storage>
<cascade>
  <stageType>BOOST</stageType>
  <featureType>LBP</featureType>
  <height>30</height>
  <width>24</width>
  <stageParams>
    <boostType>GAB</boostType>
    <minHitRate>9.9500000476837158e-01</minHitRate>
    <maxFalseAlarm>5.0000000000000000e-01</maxFalseAlarm>
    <weightTrimRate>9.4999999999999996e-01</weightTrimRate>
    <maxDepth>1</maxDepth>
    <maxWeakCount>100</maxWeakCount></stageParams>
  <featureParams>
    <maxCatCount>256</maxCatCount>
    <featSize>1</featSize></featureParams>
  <stageNum>14</stageNum>
  <stages>
    <!-- stage 0 -->
    <_>
      <maxWeakCount>3</maxWeakCount>
      <stageThreshold>-1.2770515680313110e+00</stageThreshold>
      <weakClassifiers>
        <_>
          <internalNodes>
            0 -1 12 -2100741 -539815269 -787377185 -6597285 864755903
            931859115 2072185595 -58689</internalNodes>
          <leafValues>
            -8.7135279178619385e-01 3.9041095972061157e-01</leafValues></_>
        <_>
          <internalNodes>
            0 -1 69 -52896514 -655171179 -1035943722 -1609119223
            -930555397 -1476034430 -929305601 -2133854305</internalNodes>
          <leafValues>
            -8.3052039146423340e-01 3.5617777705192566e-01</leafValues></_>
        <_>
          <internalNodes>
            0 -1 8 -19466250 -1085318317 -800500781 -2236521 1887685587
            -142536574 1157837399 -1284435149</internalNodes>
          <leafValues>
            -7.6187658309936523e-01 4.6740129590034485e-01</leafValues></_></weakClassifiers></_>
    <!-- stage 1 -->
    <_>
      <maxWeakCount>5</maxWeakCount>
      <stageThreshold>-1.7106720209121704e+00</stageThreshold>
      <weakClassifiers>
        <_>
          <internalNodes>
            0 -1 5 -2105889 -37749249 1962985981 -11022145 -376779777
            1066090639 -628425729 2080104447</internalNodes>
          <leafValues>
            -9.0960454940795898e-01 2.2916667163372040e-01</leafValues></_>
        <_>
          <internalNodes>
            0 -1 4 -42729808 -239084656 -804633413 903180563 -119801639
            -1909290447 -1064582913 1632625531</internalNodes>
          <leafValues>
            -8.4928762912750244e-01 1.9927291572093964e-01</leafValues></_>
        <_>
          <internalNodes>
            0 -1 67 265813297 287027043 -644482663 295420403 -812941064
            784201631 999292927 867693379</internalNodes>
          <leafValues>
            -7.8870368003845215e-01 3.5018667578697205e-01</leafValues></_>
        <_>
          <internalNodes>
            0 -1 82 669990327 214924271 -1134567715 -2030133650
            -1084262401 -1426554881 -1049890 -394301697</internalNodes>
          <leafValues>
            -6.6589540243148804e-01 4.3243673443794250e-01</leafValues></_>
        <_>
          <internalNodes>
            0 -1 20 -1075949947 1726708222 -654317578 -1437357153
            2099733359 -1101059416 -490999947 -25186701</internalNodes>
          <leafValues>
            -6.8021959066390991e-01 4.5425859093666077e-01</leafValues></_></weakClassifiers></_>
    <!-- stage 2 -->
    <_>
      <maxWeakCount>5</maxWeakCount>
      <stageThreshold>-1.7883876562118530e+00</stageThreshold>
      <weakClassifiers>
        <_>
          <internalNodes>
            0 -1 11 -684457985 -216277089 856250879 -2624577 734594555
            -53915425 1926915067 2146923227</internalNodes>
          <leafValues>
            -8.9607298374176025e-01 -1.3067655265331268e-01</leafValues></_>
        <_>
          <internalNodes>
            0 -1 47 -1117699 -108293578 2110806365 -775070503 -18940946
            -1180734229 -110952705 549445583</internalNodes>
          <leafValues>
            -7.8937894105911255e-01 2.4886454641819000e-01</leafValues></_>
        <_>
          <internalNodes>
            0 -1 75 -318775299 -1527285826 -149699585 -1779960620
            -725404417 -1181519537 -561251860 -1058930949</internalNodes>
          <leafValues>
            -5.8020895719528198e-01 4.7185847163200378e-01</leafValues></_>
        <_>
          <internalNodes>
            0 -1 12 -33770565 -575030694 -75246604 1935282527 986396862
            901458911 1871643102 2113870830</internalNodes>
          <leafValues>
            -7.4739980697631836e-01 3.6644023656845093e-01</leafValues></_>
        <_>
          <internalNodes>
            0 -1 56 1983844449 -71814367 1370183991 985271485 -222134682
            -1322665 -892749391 -558316239</internalNodes>
          <leafValues>
            -6.5456342697143555e-01 4.2919594049453735e-01</leafValues></_></weakClassifiers></_>
    <!-- stage 3 -->
    <_>
      <maxWeakCount>5</maxWeakCount>
      <stageThreshold>-1.3275218009948730e+00</stageThreshold>
      <weakClassifiers>
        <_>
          <internalNodes>
            0 -1 48 -68157441 -82855275 -182787555 -2125089 -35457281
            -5274177 -68186113 -1057</internalNodes>
          <leafValues>
            -7.5236964225769043e-01 6.2500000000000000e-01</leafValues></_>
        <_>
          <internalNodes>
            0 -1 80 -1360007473 -1973749045 -943458945 -1402209313
            -489949761 -1826663913 -1303649629 -855639089</internalNodes>
          <leafValues>
            -6.4822202920913696e-01 3.8443672657012939e-01</leafValues></_>
        <_>
          <internalNodes>
            0 -1 3 -142483535 -135011995 -1878926275 -239863629
            -1177551937 -277115391 -611467045 829935975</internalNodes>
          <leafValues>
            -6.7070037126541138e-01 4.0503484010696411e-01</leafValues></_>
        <_>
          <internalNodes>
            0 -1 50 1362040867 917462300 1055317371 2063540191
            1602190383 1925139449 -46205067 -380043452</internalNodes>
          <leafValues>
            -6.7290496826171875e-01 3.6733332276344299e-01</leafValues></_>
        <_>
          <internalNodes>
            0 -1 57 -67437058 -577719941 -787787426 497533296 -744969522
            -1331903814 -103877634 433053118</internalNodes>
          <leafValues>
            -6.5622180700302124e-01 4.0090656280517578e-01</leafValues></_></weakClassifiers></_>
    <!-- stage 4 -->
    <_>
      <maxWeakCount>6</maxWeakCount>
      <stageThreshold>-1.2302988767623901e+00</stageThreshold>
      <weakClassifiers>
        <_>
          <internalNodes>
            0 -1 33 -2097409 -7472705 -1660401153 -28851 -22098177
            -1347690773 -68490258 -1</internalNodes>
          <leafValues>
            -7.6108598709106445e-01 4.3157893419265747e-01</leafValues></_>
        <_>
          <internalNodes>
            0 -1 6 -36896813 1970269147 -246951435 -35924629 1769191061
            2053704087 -538634284 -235461517</internalNodes>
          <leafValues>
            -6.6212075948715210e-01 2.8885987401008606e-01</leafValues></_>
        <_>
          <internalNodes>
            0 -1 81 787468259 -1392744065 -171882531 -1427718244
            -610271377 2130616599 -548729364 -857811723</internalNodes>
          <leafValues>
            -7.2068136930465698e-01 3.0760380625724792e-01</leafValues></_>
        <_>
          <internalNodes>
            0 -1 17 148835376 924786591 -1892079840 -1885528797
            113965758 1064778747 931859258 507502011</internalNodes>
          <leafValues>
            -8.4284454584121704e-01 2.5817134976387024e-01</leafValues></_>
        <_>
          <internalNodes>
            0 -1 15 -454394516 -1358015203 -389754462 -1552491711
            1690848309 -1097599097 -336905446 -298166329</internalNodes>
          <leafValues>
            -6.8497258424758911e-01 3.6528223752975464e-01</leafValues></_>
        <_>
          <internalNodes>
            0 -1 83 -137283721 -1580470889 -1264330524 -286868513
            -35933389 -843333149 -108539521 -377488437</internalNodes>
          <leafValues>
            -5.3852581977844238e-01 4.6214050054550171e-01</leafValues></_></weakClassifiers></_>
    <!-- stage 5 -->
    <_>
      <maxWeakCount>7</maxWeakCount>
      <stageThreshold>-1.3873398303985596e+00</stageThreshold>
      <weakClassifiers>
        <_>
          <internalNodes>
            0 -1 39 -34611233 -1092711794 -603725857 -1148988961
            -2241285 -5042757 -1347829761 -67121249</internalNodes>
          <leafValues>
            -7.7770841121673584e-01 2.2921913862228394e-01</leafValues></_>
        <_>
          <internalNodes>
            0 -1 31 -302524673 2140639768 -2012184103 497717408
            -104612949 -1125446718 -1397237512 -977817360</internalNodes>
          <leafValues>
            -6.2988507747650146e-01 3.1804624199867249e-01</leafValues></_>
        <_>
          <internalNodes>
            0 -1 60 -4515309 -1574217669 2052706806 2061458335
            -745007245 -1611001222 -209717676 -93290651</internalNodes>
          <leafValues>
            -6.6375827789306641e-01 3.3239510655403137e-01</leafValues></_>
        <_>
          <internalNodes>
            0 -1 16 1598026730 1393549813 -251430421 2133981715
            1932732355 1461653607 1794077439 2144293727</internalNodes>
          <leafValues>
            -6.1701917648315430e-01 3.7452054023742676e-01</leafValues></_>
        <_>
          <internalNodes>
            0 -1 68 -398670029 2145665023 -1076416763 -163841 1069544849
            -1610645637 532520233 -1897136385</internalNodes>
          <leafValues>
            -4.1927433013916016e-01 5.4096120595932007e-01</leafValues></_>
        <_>
          <internalNodes>
            0 -1 84 788505139 -2048929403 -8922795 779998127 1359731578
            -291602193 1933958135 -34209921</internalNodes>
          <leafValues>
            -5.1920151710510254e-01 4.4679296016693115e-01</leafValues></_>
        <_>
          <internalNodes>
            0 -1 55 410983041 708771982 -777813963 208576668 -37781928
            1655673898 -67121948 -1426194460</internalNodes>
          <leafValues>
            -6.6019958257675171e-01 3.5010802745819092e-01</leafValues></_></weakClassifiers></_>
    <!-- stage 6 -->
    <_>
      <maxWeakCount>7</maxWeakCount>
      <stageThreshold>-1.7406840324401855e+00</stageThreshold>
      <weakClassifiers>
        <_>
          <internalNodes>
            0 -1 38 -537395233 -3169329 -1823026307 -9513659 -57742337
            -73401605 -1095893029 -2106369</internalNodes>
          <leafValues>
            -7.5187295675277710e-01 4.1444867849349976e-01</leafValues></_>
        <_>
          <internalNodes>
            0 -1 72 -21508500 2037455325 -1596986212 509441405
            2056069572 536570301 -1415316513 -2001534977</internalNodes>
          <leafValues>
            -7.2351664304733276e-01 2.0142684876918793e-01</leafValues></_>
        <_>
          <internalNodes>
            0 -1 77 -10495393 -1962951745 -57147605 -489695761 -10587900
            999472110 596632574 -17825805</internalNodes>
          <leafValues>
            -5.0152850151062012e-01 4.4105908274650574e-01</leafValues></_>
        <_>
          <internalNodes>
            0 -1 2 -369430530 2025583077 -2034894983 -405831721
            361712601 -1630315161 854211066 326857535</internalNodes>
          <leafValues>
            -7.7369195222854614e-01 2.7795821428298950e-01</leafValues></_>
        <_>
          <internalNodes>
            0 -1 40 437327665 -1220676707 813784911 998513625 -142368769
            -1613198166 998447116 520330014</internalNodes>
          <leafValues>
            -5.3456372022628784e-01 3.8894134759902954e-01</leafValues></_>
        <_>
          <internalNodes>
            0 -1 63 -460279600 -1126254949 -176899177 25695489
            -232895318 -356883798 -238085957 9914486</internalNodes>
          <leafValues>
            -7.1573370695114136e-01 3.1268388032913208e-01</leafValues></_>
        <_>
          <internalNodes>
            0 -1 29 -302068298 302530795 -1810539533 281706512
            2046931527 -86639805 -1006904883 1743246530</internalNodes>
          <leafValues>
            -6.3987529277801514e-01 3.2843241095542908e-01</leafValues></_></weakClassifiers></_>
    <!-- stage 7 -->
    <_>
      <maxWeakCount>7</maxWeakCount>
      <stageThreshold>-1.3875963687896729e+00</stageThreshold>
      <weakClassifiers>
        <_>
          <internalNodes>
            0 -1 44 -101777537 -1054073 -683115169 -11737273 -207889409
            -265251 -102761732 -257</internalNodes>
          <leafValues>
            -7.6539409160614014e-01 2.4431818723678589e-01</leafValues></_>
        <_>
          <internalNodes>
            0 -1 52 -1077684265 -2500705 -1319983105 -8727108 -283985155
            -810557308 -1321735939 -730608300</internalNodes>
          <leafValues>
            -5.2556562423706055e-01 3.8086923956871033e-01</leafValues></_>
        <_>
          <internalNodes>
            0 -1 23 -2001450457 1313039599 -61952018 -1505768399
            -147226788 2113583787 -153162909 -218645521</internalNodes>
          <leafValues>
            -6.3138461112976074e-01 3.0277130007743835e-01</leafValues></_>
        <_>
          <internalNodes>
            0 -1 79 771476111 -1469377665 642898927 1653469630
            1396135686 -479468049 1536145775 -51380233</internalNodes>
          <leafValues>
            -5.5903571844100952e-01 3.6355134844779968e-01</leafValues></_>
        <_>
          <internalNodes>
            0 -1 27 -1007689731 -1758283527 -1839150772 -1107654526
            -386249874 -1375782119 2058887032 1965692622</internalNodes>
          <leafValues>
            -6.8789982795715332e-01 3.2432547211647034e-01</leafValues></_>
        <_>
          <internalNodes>
            0 -1 7 -420020537 -893038437 -1392156561 -443127729
            -792235278 -804335487 1725644892 -541105238</internalNodes>
          <leafValues>
            -4.7020500898361206e-01 4.4365751743316650e-01</leafValues></_>
        <_>
          <internalNodes>
            0 -1 70 1104137375 358611287 -620045921 -1647356485
            -880684686 -1231826523 -318396225 1392489049</internalNodes>
          <leafValues>
            -5.0256478786468506e-01 4.4198009371757507e-01</leafValues></_></weakClassifiers></_>
    <!-- stage 8 -->
    <_>
      <maxWeakCount>7</maxWeakCount>
      <stageThreshold>-1.5491137504577637e+00</stageThreshold>
      <weakClassifiers>
        <_>
          <internalNodes>
            0 -1 43 2113929117 2056229821 134716541 -1109536315
            450755579 -1079276661 709864127 -16780549</internalNodes>
          <leafValues>
            -7.9408836364746094e-01 -1.5280135907232761e-02</leafValues></_>
        <_>
          <internalNodes>
            0 -1 35 -1040758593 -593535749 1434773753 -688197251
            -529839969 -597855905 -1971909842 -13653234</internalNodes>
          <leafValues>
            -5.5483436584472656e-01 2.8593525290489197e-01</leafValues></_>
        <_>
          <internalNodes>
            0 -1 32 -850609163 -4480549 153679993 697999652 -544882966
            -1419390485 -1847002920 1170040577</internalNodes>
          <leafValues>
            -5.8887934684753418e-01 3.1214022636413574e-01</leafValues></_>
        <_>
          <internalNodes>
            0 -1 9 11447722 -376544961 -2048721162 -1493371941 -70337741
            -1062389313 -412354777 -1523881</internalNodes>
          <leafValues>
            -5.4768848419189453e-01 3.3604168891906738e-01</leafValues></_>
        <_>
          <internalNodes>
            0 -1 71 212840339 -1663797578 -699162351 -1246093458
            126813047 -338599413 300638021 -1090650329</internalNodes>
          <leafValues>
            -5.0664722919464111e-01 3.9111942052841187e-01</leafValues></_>
        <_>
          <internalNodes>
            0 -1 61 -138077862 -8295156 -530458189 -673842428 1904914848
            -1249181300 883904924 2097104602</internalNodes>
          <leafValues>
            -4.5292419195175171e-01 4.5251950621604919e-01</leafValues></_>
        <_>
          <internalNodes>
            0 -1 65 780016184 1849785792 1527905433 -410627648
            -1128522373 -980495713 821710083 -862962707</internalNodes>
          <leafValues>
            -7.3399531841278076e-01 2.7902621030807495e-01</leafValues></_></weakClassifiers></_>
    <!-- stage 9 -->
    <_>
      <maxWeakCount>7</maxWeakCount>
      <stageThreshold>-1.5313154458999634e+00</stageThreshold>
      <weakClassifiers>
        <_>
          <internalNodes>
            0 -1 28 1577032701 2144983039 -1927313931 -6355819
            1601036287 -606091329 254798591 -1090519041</internalNodes>
          <leafValues>
            -7.6488834619522095e-01 1.7553190886974335e-01</leafValues></_>
        <_>
          <internalNodes>
            0 -1 19 -150995249 -604007513 -143602530 -359470869
            -20500633 1796170511 -38011906 -318768129</internalNodes>
          <leafValues>
            -5.4676592350006104e-01 3.3411678671836853e-01</leafValues></_>
        <_>
          <internalNodes>
            0 -1 1 2145251125 2003989788 -688544811 1430749752
            -343160044 -1144260039 2001193912 1240146855</internalNodes>
          <leafValues>
            -5.8015573024749756e-01 3.3619058132171631e-01</leafValues></_>
        <_>
          <internalNodes>
            0 -1 58 -1388601808 -1154121231 -715271215 2134222142
            -1838559538 -923657024 -2017603924 1970793318</internalNodes>
          <leafValues>
            -5.7264608144760132e-01 3.4089478850364685e-01</leafValues></_>
        <_>
          <internalNodes>
            0 -1 45 -363955211 779079914 -1140795331 927519724
            -1986851974 -1158973397 1678072012 1408235258</internalNodes>
          <leafValues>
            -5.7715600728988647e-01 3.5382780432701111e-01</leafValues></_>
        <_>
          <internalNodes>
            0 -1 24 802074542 14318063 1123148796 214680537 861751933
            -946494581 1739581909 -21709148</internalNodes>
          <leafValues>
            -6.2924879789352417e-01 3.1193280220031738e-01</leafValues></_>
        <_>
          <internalNodes>
            0 -1 76 -228602427 -528821569 -251283667 -1965174712
            -541996363 -1098968533 -1471940562 1090249951</internalNodes>
          <leafValues>
            -5.9423333406448364e-01 3.2767888903617859e-01</leafValues></_></weakClassifiers></_>
    <!-- stage 10 -->
    <_>
      <maxWeakCount>7</maxWeakCount>
      <stageThreshold>-1.4221343994140625e+00</stageThreshold>
      <weakClassifiers>
        <_>
          <internalNodes>
            0 -1 42 -234889217 -14694401 -109909543 -2121001 -4791826
            -1081354497 -1649729 -1</internalNodes>
          <leafValues>
            -7.4707120656967163e-01 3.2103320956230164e-01</leafValues></_>
        <_>
          <internalNodes>
            0 -1 41 -178464953 -24965950 -577071678 -679214918
            -1457538065 -1390754321 1788459258 -805844746</internalNodes>
          <leafValues>
            -5.3541529178619385e-01 3.1576237082481384e-01</leafValues></_>
        <_>
          <internalNodes>
            0 -1 13 -6431214 -171048483 604066775 1628285198 925106578
            1998284311 -177744901 1953349546</internalNodes>
          <leafValues>
            -5.6866133213043213e-01 3.1892046332359314e-01</leafValues></_>
        <_>
          <internalNodes>
            0 -1 49 -148963279 369980191 -226626817 2015313399 -70382341
            2138043123 -1221681484 -109626464</internalNodes>
          <leafValues>
            -5.3346079587936401e-01 3.7344521284103394e-01</leafValues></_>
        <_>
          <internalNodes>
            0 -1 73 1746796270 -1205845143 140428502 687223180
            -333657928 -1350171773 -2104976514 116375311</internalNodes>
          <leafValues>
            -6.6651237010955811e-01 3.1255936622619629e-01</leafValues></_>
        <_>
          <internalNodes>
            0 -1 21 25609447 -487649313 -730144818 -901320229 1656061551
            -790025821 -59839160 -68420771</internalNodes>
          <leafValues>
            -5.2167153358459473e-01 3.6319288611412048e-01</leafValues></_>
        <_>
          <internalNodes>
            0 -1 64 -67238317 -548711573 -574596621 322668503 -182556661
            -540547093 -225939087 -609191564</internalNodes>
          <leafValues>
            -4.7296577692031860e-01 4.2627975344657898e-01</leafValues></_></weakClassifiers></_>
    <!-- stage 11 -->
    <_>
      <maxWeakCount>6</maxWeakCount>
      <stageThreshold>-1.3158713579177856e+00</stageThreshold>
      <weakClassifiers>
        <_>
          <internalNodes>
            0 -1 53 -674760705 -72491073 -909446453 -531557 -33620517
            -75503665 -674242561 -1</internalNodes>
          <leafValues>
            -7.4197381734848022e-01 4.0677964687347412e-01</leafValues></_>
        <_>
          <internalNodes>
            0 -1 74 -362809347 217961305 -552488141 972652152 2063850494
            -1082799608 -1881680897 -520365894</internalNodes>
          <leafValues>
            -6.0218685865402222e-01 2.3684333264827728e-01</leafValues></_>
        <_>
          <internalNodes>
            0 -1 78 2130382438 2028144047 -90359609 705356697 1854878146
            530528411 1023933436 -319815689</internalNodes>
          <leafValues>
            -5.5338770151138306e-01 3.2852315902709961e-01</leafValues></_>
        <_>
          <internalNodes>
            0 -1 18 -636532971 -239217197 -1307314329 2142870809
            975960985 725190907 447444280 199575624</internalNodes>
          <leafValues>
            -5.3208374977111816e-01 3.6121210455894470e-01</leafValues></_>
        <_>
          <internalNodes>
            0 -1 30 797453772 583602326 810617371 839053716 64237486
            -39755287 846152127 251609586</internalNodes>
          <leafValues>
            -8.1527316570281982e-01 2.5004291534423828e-01</leafValues></_>
        <_>
          <internalNodes>
            0 -1 25 -1805732180 -1208288372 382267989 2004331895
            -165205996 85698113 -1499853574 1981014951</internalNodes>
          <leafValues>
            -7.9463660717010498e-01 2.0809291303157806e-01</leafValues></_></weakClassifiers></_>
    <!-- stage 12 -->
    <_>
      <maxWeakCount>7</maxWeakCount>
      <stageThreshold>-1.3222081661224365e+00</stageThreshold>
      <weakClassifiers>
        <_>
          <internalNodes>
            0 -1 34 -581701665 -542150145 -168549675 -537410081
            -606157633 -1087662337 -7405833 -8453</internalNodes>
          <leafValues>
            -7.6697820425033569e-01 1.5897436439990997e-01</leafValues></_>
        <_>
          <internalNodes>
            0 -1 54 -899693051 -142621855 808815326 -15475183 -234159590
            -107127659 820505116 -218115499</internalNodes>
          <leafValues>
            -5.9990018606185913e-01 2.2255794703960419e-01</leafValues></_>
        <_>
          <internalNodes>
            0 -1 22 -738852984 -1174414090 -807865761 1942737170
            -959904273 443906338 1893405423 -1280891293</internalNodes>
          <leafValues>
            -4.6708470582962036e-01 3.9237445592880249e-01</leafValues></_>
        <_>
          <internalNodes>
            0 -1 10 -1496794621 1002358230 -912856259 -1073876080
            1138846581 -167834883 1602221566 -271620815</internalNodes>
          <leafValues>
            -5.0881832838058472e-01 3.4019166231155396e-01</leafValues></_>
        <_>
          <internalNodes>
            0 -1 26 476556211 599527538 1972461047 893305479 -96474841
            -402673665 2141924122 -691607677</internalNodes>
          <leafValues>
            -4.7138991951942444e-01 3.8911765813827515e-01</leafValues></_>
        <_>
          <internalNodes>
            0 -1 51 -653026017 2067489557 775683890 -3911987 1336665087
            732597058 1669417643 1333805285</internalNodes>
          <leafValues>
            -4.3345263600349426e-01 4.1230759024620056e-01</leafValues></_>
        <_>
          <internalNodes>
            0 -1 62 57920074 -1500343636 1393978331 -20130972 -217338881
            -70528389 -22037840 -923734928</internalNodes>
          <leafValues>
            -6.0226166248321533e-01 3.1630071997642517e-01</leafValues></_></weakClassifiers></_>
    <!-- stage 13 -->
    <_>
      <maxWeakCount>7</maxWeakCount>
      <stageThreshold>-1.5859229564666748e+00</stageThreshold>
      <weakClassifiers>
        <_>
          <internalNodes>
            0 -1 36 -637543425 -24345938 -201007137 -3646145 -111961377
            -112219157 -8283218 -286837</internalNodes>
          <leafValues>
            -7.7389645576477051e-01 8.2039915025234222e-02</leafValues></_>
        <_>
          <internalNodes>
            0 -1 66 -561005653 -78932001 -1220082245 2012453467
            -1279350543 -1093039852 -1076892193 -1740128510</internalNodes>
          <leafValues>
            -5.2732533216476440e-01 3.1174820661544800e-01</leafValues></_>
        <_>
          <internalNodes>
            0 -1 37 1956577331 1156787743 -586630411 2051474926
            -460836258 -197564101 346892064 1947206164</internalNodes>
          <leafValues>
            -8.5078448057174683e-01 1.7243848741054535e-01</leafValues></_>
        <_>
          <internalNodes>
            0 -1 14 -890778770 1801233094 -326483006 798649447
            2016358768 443220662 -536982734 -322009286</internalNodes>
          <leafValues>
            -5.6952428817749023e-01 3.0410847067832947e-01</leafValues></_>
        <_>
          <internalNodes>
            0 -1 46 1431674448 -540684888 -1325133666 -1378036800
            -351834434 -1358978365 -88143106 1907061754</internalNodes>
          <leafValues>
            -5.7888478040695190e-01 2.8013104200363159e-01</leafValues></_>
        <_>
          <internalNodes>
            0 -1 0 137018219 257403857 -1455086647 821876954 1254342399
            -206860253 586150911 -1546130911</internalNodes>
          <leafValues>
            -4.7792991995811462e-01 3.7741675972938538e-01</leafValues></_>
        <_>
          <internalNodes>
            0 -1 59 1268191587 181402226 -780023395 1792715591
            -1162430923 -456424543 -82118827 -1662071427</internalNodes>
          <leafValues>
            -5.2522087097167969e-01 3.7029451131820679e-01</leafValues></_></weakClassifiers></_></stages>
  <features>
    <_>
      <rect>
        0 0 1 2</rect></_>
    <_>
      <rect>
        0 0 4 4</rect></_>
    <_>
      <rect>
        0 0 6 10</rect></_>
    <_>
      <rect>
        0 0 8 5</rect></_>
    <_>
      <rect>
        0 0 8 6</rect></_>
    <_>
      <rect>
        0 0 8 10</rect></_>
    <_>
      <rect>
        0 1 3 7</rect></_>
    <_>
      <rect>
        0 2 1 9</rect></_>
    <_>
      <rect>
        0 2 5 7</rect></_>
    <_>
      <rect>
        0 5 1 1</rect></_>
    <_>
      <rect>
        0 6 2 3</rect></_>
    <_>
      <rect>
        0 9 4 7</rect></_>
    <_>
      <rect>
        0 9 6 7</rect></_>
    <_>
      <rect>
        0 14 4 4</rect></_>
    <_>
      <rect>
        0 16 1 2</rect></_>
    <_>
      <rect>
        0 18 1 3</rect></_>
    <_>
      <rect>
        0 18 3 4</rect></_>
    <_>
      <rect>
        0 18 8 4</rect></_>
    <_>
      <rect>
        0 21 7 3</rect></_>
    <_>
      <rect>
        0 22 1 1</rect></_>
    <_>
      <rect>
        0 23 1 1</rect></_>
    <_>
      <rect>
        0 24 1 1</rect></_>
    <_>
      <rect>
        0 24 3 2</rect></_>
    <_>
      <rect>
        0 25 1 1</rect></_>
    <_>
      <rect>
        1 0 1 1</rect></_>
    <_>
      <rect>
        1 4 7 5</rect></_>
    <_>
      <rect>
        2 0 3 2</rect></_>
    <_>
      <rect>
        2 5 6 8</rect></_>
    <_>
      <rect>
        2 6 5 4</rect></_>
    <_>
      <rect>
        3 0 3 2</rect></_>
    <_>
      <rect>
        3 17 4 4</rect></_>
    <_>
      <rect>
        4 0 3 3</rect></_>
    <_>
      <rect>
        4 0 4 3</rect></_>
    <_>
      <rect>
        4 2 6 8</rect></_>
    <_>
      <rect>
        4 3 6 8</rect></_>
    <_>
      <rect>
        4 10 3 4</rect></_>
    <_>
      <rect>
        4 10 5 5</rect></_>
    <_>
      <rect>
        4 11 3 3</rect></_>
    <_>
      <rect>
        4 11 6 4</rect></_>
    <_>
      <rect>
        4 12 4 5</rect></_>
    <_>
      <rect>
        4 21 6 3</rect></_>
    <_>
      <rect>
        5 0 3 2</rect></_>
    <_>
      <rect>
        5 1 6 9</rect></_>
    <_>
      <rect>
        5 5 4 4</rect></_>
    <_>
      <rect>
        5 9 5 5</rect></_>
    <_>
      <rect>
        5 10 5 4</rect></_>
    <_>
      <rect>
        6 0 5 6</rect></_>
    <_>
      <rect>
        6 0 6 9</rect></_>
    <_>
      <rect>
        6 5 5 7</rect></_>
    <_>
      <rect>
        7 10 2 2</rect></_>
    <_>
      <rect>
        7 13 1 1</rect></_>
    <_>
      <rect>
        7 21 3 3</rect></_>
    <_>
      <rect>
        8 0 4 1</rect></_>
    <_>
      <rect>
        8 5 4 7</rect></_>
    <_>
      <rect>
        8 6 3 3</rect></_>
    <_>
      <rect>
        8 10 1 1</rect></_>
    <_>
      <rect>
        8 11 1 2</rect></_>
    <_>
      <rect>
        9 0 5 10</rect></_>
    <_>
      <rect>
        9 2 3 3</rect></_>
    <_>
      <rect>
        9 10 1 2</rect></_>
    <_>
      <rect>
        9 13 1 1</rect></_>
    <_>
      <rect>
        9 14 4 4</rect></_>
    <_>
      <rect>
        10 0 1 1</rect></_>
    <_>
      <rect>
        10 0 4 4</rect></_>
    <_>
      <rect>
        10 15 1 1</rect></_>
    <_>
      <rect>
        10 17 1 2</rect></_>
    <_>
      <rect>
        11 0 3 2</rect></_>
    <_>
      <rect>
        12 12 4 6</rect></_>
    <_>
      <rect>
        13 23 2 2</rect></_>
    <_>
      <rect>
        15 2 3 7</rect></_>
    <_>
      <rect>
        15 18 3 4</rect></_>
    <_>
      <rect>
        16 24 1 2</rect></_>
    <_>
      <rect>
        18 0 2 4</rect></_>
    <_>
      <rect>
        18 2 2 6</rect></_>
    <_>
      <rect>
        18 9 2 5</rect></_>
    <_>
      <rect>
        18 9 2 6</rect></_>
    <_>
      <rect>
        18 14 2 3</rect></_>
    <_>
      <rect>
        21 1 1 1</rect></_>
    <_>
      <rect>
        21 1 1 2</rect></_>
    <_>
      <rect>
        21 2 1 1</rect></_>
    <_>
      <rect>
        21 8 1 6</rect></_>
    <_>
      <rect>
        21 14 1 2</rect></_>
    <_>
      <rect>
        21 21 1 1</rect></_>
    <_>
      <rect>
        21 25 1 1</rect></_>
    <_>
      <rect>
        21 26 1 1</rect></_></features></cascade>
</opencv_storage>
