<?xml version="1.0"?>
<opencv_storage>
<cascade>
  <stageType>BOOST</stageType>
  <featureType>LBP</featureType>
  <height>24</height>
  <width>30</width>
  <stageParams>
    <boostType>GAB</boostType>
    <minHitRate>9.9949997663497925e-01</minHitRate>
    <maxFalseAlarm>5.0000000000000000e-01</maxFalseAlarm>
    <weightTrimRate>9.4999999999999996e-01</weightTrimRate>
    <maxDepth>1</maxDepth>
    <maxWeakCount>100</maxWeakCount></stageParams>
  <featureParams>
    <maxCatCount>256</maxCatCount>
    <featSize>1</featSize></featureParams>
  <stageNum>13</stageNum>
  <stages>
    <!-- stage 0 -->
    <_>
      <maxWeakCount>4</maxWeakCount>
      <stageThreshold>-2.3325533866882324e+00</stageThreshold>
      <weakClassifiers>
        <_>
          <internalNodes>
            0 -1 48 -2097153 -2097185 -13238273 -2106881 -72352769
            -67138085 -1025 805305343</internalNodes>
          <leafValues>
            -9.5407360792160034e-01 1.3968957960605621e-01</leafValues></_>
        <_>
          <internalNodes>
            0 -1 13 -134217729 1912599551 -573055489 -135278209
            1966858751 284664311 -172753921 -201332741</internalNodes>
          <leafValues>
            -8.8766527175903320e-01 4.2325928807258606e-01</leafValues></_>
        <_>
          <internalNodes>
            0 -1 3 2139095039 -540681 2145386495 2139062271 2140105727
            -4196497 2004580991 2004292967</internalNodes>
          <leafValues>
            -8.7233155965805054e-01 4.3353301286697388e-01</leafValues></_>
        <_>
          <internalNodes>
            0 -1 87 783466421 463714264 -1610613251 -1074282639
            805306367 -1073872897 2080210943 -1342177409</internalNodes>
          <leafValues>
            -7.1224611997604370e-01 5.2914839982986450e-01</leafValues></_></weakClassifiers></_>
    <!-- stage 1 -->
    <_>
      <maxWeakCount>6</maxWeakCount>
      <stageThreshold>-2.4035534858703613e+00</stageThreshold>
      <weakClassifiers>
        <_>
          <internalNodes>
            0 -1 36 -262145 -8396865 -109060097 -2107073 -4194369
            -4210917 -5505025 -821072113</internalNodes>
          <leafValues>
            -9.2314690351486206e-01 2.1878121793270111e-01</leafValues></_>
        <_>
          <internalNodes>
            0 -1 6 -136314881 -201329697 -545267715 2010903933
            -270532613 -201334019 -136314881 838857215</internalNodes>
          <leafValues>
            -9.1540122032165527e-01 2.0415633916854858e-01</leafValues></_>
        <_>
          <internalNodes>
            0 -1 70 -268845059 -737417 -131585 -40042561 -36569635
            -131585 -67305476 -939471260</internalNodes>
          <leafValues>
            -7.6016068458557129e-01 3.9415383338928223e-01</leafValues></_>
        <_>
          <internalNodes>
            0 -1 44 78980951 1064730615 -8462337 1006619647 58147310
            1073703611 1807625211 -67141633</internalNodes>
          <leafValues>
            -7.3748081922531128e-01 4.6745815873146057e-01</leafValues></_>
        <_>
          <internalNodes>
            0 -1 25 -537428545 -35329 -67272705 2139042583 1492321418
            2054642836 -32538626 -46706817</internalNodes>
          <leafValues>
            -6.2325805425643921e-01 5.0868195295333862e-01</leafValues></_>
        <_>
          <internalNodes>
            0 -1 91 -287834323 2137515975 -990849537 -1919426081
            -1359028250 -89137477 -391446785 16775419</internalNodes>
          <leafValues>
            -7.1797776222229004e-01 4.5599725842475891e-01</leafValues></_></weakClassifiers></_>
    <!-- stage 2 -->
    <_>
      <maxWeakCount>7</maxWeakCount>
      <stageThreshold>-2.6719186305999756e+00</stageThreshold>
      <weakClassifiers>
        <_>
          <internalNodes>
            0 -1 49 -536870913 -6299873 -14813185 -6292481 -71565313
            -262358 -72352769 -277872833</internalNodes>
          <leafValues>
            -9.0021038055419922e-01 8.2508251070976257e-02</leafValues></_>
        <_>
          <internalNodes>
            0 -1 80 -786437 1002154987 -168828931 -1077971525 -3686401
            268427247 -335544833 -1346372609</internalNodes>
          <leafValues>
            -7.6465964317321777e-01 3.0444571375846863e-01</leafValues></_>
        <_>
          <internalNodes>
            0 -1 45 -538263553 -142755909 -268731393 -180363 -805519361
            -1075471426 -4513841 -851108607</internalNodes>
          <leafValues>
            -6.6097038984298706e-01 4.3616566061973572e-01</leafValues></_>
        <_>
          <internalNodes>
            0 -1 16 -277415937 -1146913 1595891583 -2236417 46085631
            1606384127 329188283 2147442687</internalNodes>
          <leafValues>
            -7.2066104412078857e-01 3.9933016896247864e-01</leafValues></_>
        <_>
          <internalNodes>
            0 -1 97 -51426055 -41943305 -2695937 -134824099 1593827030
            -16777249 -16842753 -1442644229</internalNodes>
          <leafValues>
            -6.3011378049850464e-01 4.8424676060676575e-01</leafValues></_>
        <_>
          <internalNodes>
            0 -1 9 -549456047 -65539 -137 -168035022 2147483615
            -16777222 -176198379 -33589453</internalNodes>
          <leafValues>
            -5.2956765890121460e-01 5.4093849658966064e-01</leafValues></_>
        <_>
          <internalNodes>
            0 -1 89 217464699 -1145618499 1073676287 -1107361793
            2147450879 -553813765 -1192263695 -872514055</internalNodes>
          <leafValues>
            -6.3015019893646240e-01 4.6515887975692749e-01</leafValues></_></weakClassifiers></_>
    <!-- stage 3 -->
    <_>
      <maxWeakCount>7</maxWeakCount>
      <stageThreshold>-2.8455634117126465e+00</stageThreshold>
      <weakClassifiers>
        <_>
          <internalNodes>
            0 -1 49 -2097153 -2097353 -11018241 -1 -71565313 -17622 -1
            -282067153</internalNodes>
          <leafValues>
            -9.0067905187606812e-01 -2.2482894361019135e-02</leafValues></_>
        <_>
          <internalNodes>
            0 -1 19 -206045697 2139065855 -167905825 -8398373 -69533989
            469762043 -3408897 2079316735</internalNodes>
          <leafValues>
            -8.4323024749755859e-01 5.5715501308441162e-02</leafValues></_>
        <_>
          <internalNodes>
            0 -1 21 -214434049 -140517381 -709363201 -16777345
            -105398277 -10552329 1935743387 1987143031</internalNodes>
          <leafValues>
            -7.2195363044738770e-01 3.2710507512092590e-01</leafValues></_>
        <_>
          <internalNodes>
            0 -1 82 -17301633 -16908321 -4194817 2037292783 -352523011
            -17409 -321073410 -2141159961</internalNodes>
          <leafValues>
            -6.1322766542434692e-01 4.1592764854431152e-01</leafValues></_>
        <_>
          <internalNodes>
            0 -1 99 251596595 251592478 -2097163 -8716300 -1612857611
            -1078853633 -1050753 -1414669959</internalNodes>
          <leafValues>
            -6.3358527421951294e-01 4.2997920513153076e-01</leafValues></_>
        <_>
          <internalNodes>
            0 -1 77 -1048645 1609547507 -1014497825 227272589 -775422273
            1073479067 -2495521 234093551</internalNodes>
          <leafValues>
            -6.5976226329803467e-01 3.5243532061576843e-01</leafValues></_>
        <_>
          <internalNodes>
            0 -1 22 -283115597 784329718 -335806478 -536879489
            2080337919 -2048951297 -134323564 -4426</internalNodes>
          <leafValues>
            -5.1447802782058716e-01 4.7936612367630005e-01</leafValues></_></weakClassifiers></_>
    <!-- stage 4 -->
    <_>
      <maxWeakCount>8</maxWeakCount>
      <stageThreshold>-2.3841214179992676e+00</stageThreshold>
      <weakClassifiers>
        <_>
          <internalNodes>
            0 -1 10 -9440801 -169872553 -48242721 -10496033 -72396289
            -201637392 -5242881 -2097153</internalNodes>
          <leafValues>
            -8.9670598506927490e-01 -8.5388995707035065e-02</leafValues></_>
        <_>
          <internalNodes>
            0 -1 84 -44040225 -2361633 -14680833 -67110177 -389022001
            -4472873 -18875393 -218108177</internalNodes>
          <leafValues>
            -6.7321896553039551e-01 3.2079383730888367e-01</leafValues></_>
        <_>
          <internalNodes>
            0 -1 20 -673186307 1060899282 -37102113 2135766522
            2075844095 712767987 -276174337 1006631611</internalNodes>
          <leafValues>
            -7.5393456220626831e-01 2.9248073697090149e-01</leafValues></_>
        <_>
          <internalNodes>
            0 -1 4 -12664833 -552141321 466573311 -1074307086
            -1344275969 -18154051 2011653083 2011653955</internalNodes>
          <leafValues>
            -6.2699902057647705e-01 3.8270673155784607e-01</leafValues></_>
        <_>
          <internalNodes>
            0 -1 103 712687479 -1149968400 -2138113 -1082163684
            2145384957 -70255638 -570491937 -1090685455</internalNodes>
          <leafValues>
            -6.1603611707687378e-01 3.8591551780700684e-01</leafValues></_>
        <_>
          <internalNodes>
            0 -1 24 -131201 -1090521121 -135397890 -49677 -32985
            803471357 -8556688 -1527316493</internalNodes>
          <leafValues>
            -5.5651968717575073e-01 3.9076730608940125e-01</leafValues></_>
        <_>
          <internalNodes>
            0 -1 46 -539101200 -2296844 1359338911 -145408048 -604063560
            -1093793318 2126232458 -1074119254</internalNodes>
          <leafValues>
            -5.2568340301513672e-01 4.3601250648498535e-01</leafValues></_>
        <_>
          <internalNodes>
            0 -1 40 -1625358477 -2024810733 -1613833 -1075053196
            -605062145 -805315673 1844433761 -32908</internalNodes>
          <leafValues>
            -5.0333338975906372e-01 4.3888393044471741e-01</leafValues></_></weakClassifiers></_>
    <!-- stage 5 -->
    <_>
      <maxWeakCount>9</maxWeakCount>
      <stageThreshold>-2.7739305496215820e+00</stageThreshold>
      <weakClassifiers>
        <_>
          <internalNodes>
            0 -1 47 -537395265 -17633 -853811201 -2099393 -335545409 -81
            -24577 -816877777</internalNodes>
          <leafValues>
            -9.1741794347763062e-01 -3.5013124346733093e-01</leafValues></_>
        <_>
          <internalNodes>
            0 -1 12 -686292993 -238603681 -687480969 -136864355
            -236980225 283762911 -287580193 -201327697</internalNodes>
          <leafValues>
            -7.6161742210388184e-01 5.5731821805238724e-02</leafValues></_>
        <_>
          <internalNodes>
            0 -1 8 2147481087 2111270847 1898799101 871316474 2069573630
            -370156645 1347911615 1601635839</internalNodes>
          <leafValues>
            -7.0504260063171387e-01 2.6334959268569946e-01</leafValues></_>
        <_>
          <internalNodes>
            0 -1 105 1593335629 2120220637 -16842753 -25250340
            1325170430 -129 -553726754 -265097778</internalNodes>
          <leafValues>
            -6.3385236263275146e-01 3.1722047924995422e-01</leafValues></_>
        <_>
          <internalNodes>
            0 -1 72 -138414276 -546418689 -1073778184 -142678089 -51439
            -285968449 2013205684 -21039111</internalNodes>
          <leafValues>
            -4.4316676259040833e-01 4.7332862019538879e-01</leafValues></_>
        <_>
          <internalNodes>
            0 -1 96 775924657 -1799421984 -2130177 -327 2078235639
            -1073742385 -545293955 -1128792072</internalNodes>
          <leafValues>
            -5.2083134651184082e-01 4.2113655805587769e-01</leafValues></_>
        <_>
          <internalNodes>
            0 -1 50 -1715814415 -1763509320 2040002487 -550504520
            2069872639 -71902985 -67239945 -269093387</internalNodes>
          <leafValues>
            -4.3733218312263489e-01 4.3476244807243347e-01</leafValues></_>
        <_>
          <internalNodes>
            0 -1 81 240912765 936347614 2123792383 -126160935 1589345271
            -352309 -1142521858 -822724172</internalNodes>
          <leafValues>
            -5.3269159793853760e-01 3.5456794500350952e-01</leafValues></_>
        <_>
          <internalNodes>
            0 -1 111 -940577105 -285413654 -413291344 -809500789
            2147441655 1575877627 -137143945 -436731913</internalNodes>
          <leafValues>
            -5.6164121627807617e-01 3.3475217223167419e-01</leafValues></_></weakClassifiers></_>
    <!-- stage 6 -->
    <_>
      <maxWeakCount>9</maxWeakCount>
      <stageThreshold>-2.8430905342102051e+00</stageThreshold>
      <weakClassifiers>
        <_>
          <internalNodes>
            0 -1 56 -33685505 -134861 -111816193 -1052289 -2097217
            -5248966 -1064961 -269484177</internalNodes>
          <leafValues>
            -8.9230608940124512e-01 -2.3763179779052734e-01</leafValues></_>
        <_>
          <internalNodes>
            0 -1 26 -6555649 -1178608681 -170811411 899390079 -341594881
            -272647269 -156697601 293600255</internalNodes>
          <leafValues>
            -7.8300815820693970e-01 3.7837568670511246e-02</leafValues></_>
        <_>
          <internalNodes>
            0 -1 19 -207163907 -12744226 -580920353 -8397606 -1133970721
            197818875 -70583367 1005570751</internalNodes>
          <leafValues>
            -6.4519333839416504e-01 2.5484529137611389e-01</leafValues></_>
        <_>
          <internalNodes>
            0 -1 43 -93430824 -1213284429 1060045360 -1091404294
            259899336 -1613857281 536698111 -17104965</internalNodes>
          <leafValues>
            -4.6271687746047974e-01 4.0022984147071838e-01</leafValues></_>
        <_>
          <internalNodes>
            0 -1 93 -17027483 2063130557 -612369921 -594050 -740524552
            -54530049 -83992615 -1234948300</internalNodes>
          <leafValues>
            -5.6218475103378296e-01 3.5384812951087952e-01</leafValues></_>
        <_>
          <internalNodes>
            0 -1 29 1874853683 1278722047 1610611189 -1073807717
            -36356105 -314844297 33511249 -5243564</internalNodes>
          <leafValues>
            -5.1509535312652588e-01 3.5537406802177429e-01</leafValues></_>
        <_>
          <internalNodes>
            0 -1 63 1442121077 -536870913 -1891663873 -1342284481
            -1780912649 -5889 -51675141 -1439138014</internalNodes>
          <leafValues>
            -5.5685681104660034e-01 3.3511203527450562e-01</leafValues></_>
        <_>
          <internalNodes>
            0 -1 102 -1372934850 -1197431896 -587128679 -1080874923
            -145361690 -1469460327 299203133 1610603263</internalNodes>
          <leafValues>
            -6.4906072616577148e-01 2.7511572837829590e-01</leafValues></_>
        <_>
          <internalNodes>
            0 -1 2 669184816 -812986030 1464706007 -44837280 -1175471880
            -561004047 1037952959 -1074268750</internalNodes>
          <leafValues>
            -4.8734706640243530e-01 3.7739831209182739e-01</leafValues></_></weakClassifiers></_>
    <!-- stage 7 -->
    <_>
      <maxWeakCount>9</maxWeakCount>
      <stageThreshold>-2.3501391410827637e+00</stageThreshold>
      <weakClassifiers>
        <_>
          <internalNodes>
            0 -1 39 -35651649 -551552082 -10905089 -11018753 -340803777
            -1409356244 -68420609 -814744001</internalNodes>
          <leafValues>
            -9.1382074356079102e-01 -4.3253234028816223e-01</leafValues></_>
        <_>
          <internalNodes>
            0 -1 53 -1114812 -550537233 -555811376 -2179105 -811673185
            -1141211265 -1800474117 -1</internalNodes>
          <leafValues>
            -6.5010654926300049e-01 1.9343551993370056e-01</leafValues></_>
        <_>
          <internalNodes>
            0 -1 5 -698351649 -216073249 -820279425 1394333695
            -309461041 -134219777 -723517441 1912601087</internalNodes>
          <leafValues>
            -6.4516532421112061e-01 2.5309693813323975e-01</leafValues></_>
        <_>
          <internalNodes>
            0 -1 34 1708659797 1610251735 1060650495 1060839423
            1307380989 -2195537 -1098884162 1060249403</internalNodes>
          <leafValues>
            -7.7197802066802979e-01 1.9668792188167572e-01</leafValues></_>
        <_>
          <internalNodes>
            0 -1 85 -1090521309 -1076035587 -8687759 -1113786632
            788477247 1977573375 1295981876 -319526988</internalNodes>
          <leafValues>
            -5.0915122032165527e-01 3.3841502666473389e-01</leafValues></_>
        <_>
          <internalNodes>
            0 -1 106 -88355057 2145779645 -413014353 551741963
            -362837196 -302261253 -291771398 -520618673</internalNodes>
          <leafValues>
            -4.6887350082397461e-01 3.5859134793281555e-01</leafValues></_>
        <_>
          <internalNodes>
            0 -1 74 -2136670223 770977788 2135913471 -1073956868
            -605345794 -1342178305 -327270401 -1930146480</internalNodes>
          <leafValues>
            -5.6739830970764160e-01 3.0409911274909973e-01</leafValues></_>
        <_>
          <internalNodes>
            0 -1 17 -268458462 -1087448771 -2367648 -272506970
            -1075865036 -1221592606 -525484 -18006474</internalNodes>
          <leafValues>
            -5.6549775600433350e-01 2.8678891062736511e-01</leafValues></_>
        <_>
          <internalNodes>
            0 -1 83 805289847 -1172603049 2145902511 -8519844 2079211007
            -3576423 2108652989 -35717424</internalNodes>
          <leafValues>
            -4.2716574668884277e-01 3.8217297196388245e-01</leafValues></_></weakClassifiers></_>
    <!-- stage 8 -->
    <_>
      <maxWeakCount>10</maxWeakCount>
      <stageThreshold>-2.4206414222717285e+00</stageThreshold>
      <weakClassifiers>
        <_>
          <internalNodes>
            0 -1 38 -10748929 -543180609 -645668913 -417985 -379586625
            -809501122 -2162689 -815809665</internalNodes>
          <leafValues>
            -8.9978402853012085e-01 -3.5460123419761658e-01</leafValues></_>
        <_>
          <internalNodes>
            0 -1 78 -607160970 -493196 -1150307843 -201459793 -6587019
            -1110412302 -4532763 -134481922</internalNodes>
          <leafValues>
            -6.5299987792968750e-01 1.6126722097396851e-01</leafValues></_>
        <_>
          <internalNodes>
            0 -1 1 -1426852079 -816069328 -659599433 -36701390 -67239941
            -2100439675 2080309183 -6346</internalNodes>
          <leafValues>
            -4.5485466718673706e-01 3.4534284472465515e-01</leafValues></_>
        <_>
          <internalNodes>
            0 -1 11 -1210195969 1905120223 -980596403 1700519253
            1200551423 1358880975 1335066591 313783759</internalNodes>
          <leafValues>
            -7.6996225118637085e-01 2.0195567607879639e-01</leafValues></_>
        <_>
          <internalNodes>
            0 -1 52 552518944 -1365585995 -241441704 2130345962
            1988047359 -8487443 -4194882 -285409389</internalNodes>
          <leafValues>
            -4.7169962525367737e-01 3.8053849339485168e-01</leafValues></_>
        <_>
          <internalNodes>
            0 -1 104 1574323929 -1078042753 -70267107 -1344537
            2130598335 -8521269 -555817986 -1104102032</internalNodes>
          <leafValues>
            -5.8617359399795532e-01 2.7168643474578857e-01</leafValues></_>
        <_>
          <internalNodes>
            0 -1 101 -892425993 866301497 958867826 -2543942 927193527
            -1144008305 1740851557 2105407463</internalNodes>
          <leafValues>
            -4.4001519680023193e-01 3.7290519475936890e-01</leafValues></_>
        <_>
          <internalNodes>
            0 -1 65 -1370505678 -811700354 1376611325 2079200215
            177684273 -20809217 -1245448715 -574816779</internalNodes>
          <leafValues>
            -4.7932305932044983e-01 3.3334898948669434e-01</leafValues></_>
        <_>
          <internalNodes>
            0 -1 64 -555747369 2141120194 -1006276777 -280285486
            -1117423682 -1903192857 -14328917 687023871</internalNodes>
          <leafValues>
            -6.6561764478683472e-01 2.3943556845188141e-01</leafValues></_>
        <_>
          <internalNodes>
            0 -1 30 -28114990 2130855135 -40525861 1562230809 808102794
            -146701826 1347395483 -453698253</internalNodes>
          <leafValues>
            -4.3748533725738525e-01 3.8391295075416565e-01</leafValues></_></weakClassifiers></_>
    <!-- stage 9 -->
    <_>
      <maxWeakCount>10</maxWeakCount>
      <stageThreshold>-2.4854371547698975e+00</stageThreshold>
      <weakClassifiers>
        <_>
          <internalNodes>
            0 -1 61 -3145729 -2158629 2109553279 -2166817 -6308417
            -4588657 -10502211 -16842753</internalNodes>
          <leafValues>
            -8.7866735458374023e-01 -8.9820362627506256e-02</leafValues></_>
        <_>
          <internalNodes>
            0 -1 32 -145950976 -444076273 -738140739 -2629923 -403705080
            -1410468241 -85280769 -268448513</internalNodes>
          <leafValues>
            -6.9734162092208862e-01 1.2363805621862411e-01</leafValues></_>
        <_>
          <internalNodes>
            0 -1 73 1515040637 828007295 -1656766724 1207758205
            -67240449 -88767825 -826937666 -1474277833</internalNodes>
          <leafValues>
            -5.5056107044219971e-01 2.1307446062564850e-01</leafValues></_>
        <_>
          <internalNodes>
            0 -1 14 -883437701 2111639247 1690402686 -573754417
            1962349367 2080275695 1971132287 1977835455</internalNodes>
          <leafValues>
            -7.6343965530395508e-01 1.8413314223289490e-01</leafValues></_>
        <_>
          <internalNodes>
            0 -1 110 1853286051 2122315646 -420516150 -1494832534
            1340016480 -1094976581 -490810802 -185074101</internalNodes>
          <leafValues>
            -5.3585141897201538e-01 2.8247117996215820e-01</leafValues></_>
        <_>
          <internalNodes>
            0 -1 28 -539507649 -657065025 -771489825 407853919
            -457486660 -73176177 -73385029 -16091073</internalNodes>
          <leafValues>
            -3.7786850333213806e-01 3.9544117450714111e-01</leafValues></_>
        <_>
          <internalNodes>
            0 -1 42 736805248 -564468259 -774376069 1582859678 576971660
            -1398081169 1917407151 1424113131</internalNodes>
          <leafValues>
            -5.2538371086120605e-01 2.9246595501899719e-01</leafValues></_>
        <_>
          <internalNodes>
            0 -1 109 -1346601479 -1360593538 -675283019 -1386089162
            972026801 -537133137 805250921 -304552144</internalNodes>
          <leafValues>
            -5.1374495029449463e-01 2.9645887017250061e-01</leafValues></_>
        <_>
          <internalNodes>
            0 -1 35 177924081 1873337824 -2050163331 -477324 702529523
            -30434924 1341750269 -823147020</internalNodes>
          <leafValues>
            -4.7141599655151367e-01 3.1968083977699280e-01</leafValues></_>
        <_>
          <internalNodes>
            0 -1 88 620246839 -85068610 -3211779 -857736929 -1409029
            -1159943273 -72679529 -823263748</internalNodes>
          <leafValues>
            -4.8512709140777588e-01 2.9664897918701172e-01</leafValues></_></weakClassifiers></_>
    <!-- stage 10 -->
    <_>
      <maxWeakCount>11</maxWeakCount>
      <stageThreshold>-2.3701634407043457e+00</stageThreshold>
      <weakClassifiers>
        <_>
          <internalNodes>
            0 -1 59 -3408897 -191401 1566522335 -81921 -2114625 -3674161
            -676334147 -16844833</internalNodes>
          <leafValues>
            -8.8340717554092407e-01 -2.8196445107460022e-01</leafValues></_>
        <_>
          <internalNodes>
            0 -1 41 -681706053 -873727562 -771761953 -268439169
            -853541074 -271619524 -806486017 -269484481</internalNodes>
          <leafValues>
            -6.3574147224426270e-01 1.8791262805461884e-01</leafValues></_>
        <_>
          <internalNodes>
            0 -1 98 -288413001 -1614547063 -534708577 155928744
            -1085342738 -77398 -1547457829 16252407</internalNodes>
          <leafValues>
            -6.7065495252609253e-01 1.5522542595863342e-01</leafValues></_>
        <_>
          <internalNodes>
            0 -1 51 1052753905 805213556 1668022271 -545284155
            1526031757 -1361060628 1291472287 83821685</internalNodes>
          <leafValues>
            -5.5212670564651489e-01 2.3227861523628235e-01</leafValues></_>
        <_>
          <internalNodes>
            0 -1 31 -285532940 2120055775 -1078920193 997882623
            -1365306948 -76588555 -990223113 -1087209473</internalNodes>
          <leafValues>
            -4.6148782968521118e-01 3.1220880150794983e-01</leafValues></_>
        <_>
          <internalNodes>
            0 -1 108 -344541264 126547644 -472549502 -1342212301
            604632996 -574916149 -108318347 -839516426</internalNodes>
          <leafValues>
            -5.5140835046768188e-01 2.7056729793548584e-01</leafValues></_>
        <_>
          <internalNodes>
            0 -1 90 -545369012 -542640394 -1643194129 -71009 -98829240
            -541147441 -18063442 -94339361</internalNodes>
          <leafValues>
            -4.4893792271614075e-01 3.0646485090255737e-01</leafValues></_>
        <_>
          <internalNodes>
            0 -1 33 -287385128 -1684074529 1330257339 -1143800909
            -1689260104 2138846311 1575042289 -1780548617</internalNodes>
          <leafValues>
            -3.9469173550605774e-01 3.6532157659530640e-01</leafValues></_>
        <_>
          <internalNodes>
            0 -1 86 235191158 -1128792675 -50724921 -1349754885
            385843199 -1079232263 1055751928 905931765</internalNodes>
          <leafValues>
            -6.6969025135040283e-01 2.2087192535400391e-01</leafValues></_>
        <_>
          <internalNodes>
            0 -1 7 1736423519 -801147326 -1065100753 -639635135
            2028863223 -928130873 -766256904 108492615</internalNodes>
          <leafValues>
            -5.5490744113922119e-01 2.5187042355537415e-01</leafValues></_>
        <_>
          <internalNodes>
            0 -1 76 736984678 802091007 -67125378 1593240190 787443541
            1062927101 -324121180 -181084164</internalNodes>
          <leafValues>
            -5.4876005649566650e-01 2.4321602284908295e-01</leafValues></_></weakClassifiers></_>
    <!-- stage 11 -->
    <_>
      <maxWeakCount>11</maxWeakCount>
      <stageThreshold>-2.2067906856536865e+00</stageThreshold>
      <weakClassifiers>
        <_>
          <internalNodes>
            0 -1 66 -2621441 -2097185 -16303109 -2134017 -3424325
            -5047330 -16449 -2162689</internalNodes>
          <leafValues>
            -8.5515320301055908e-01 -1.4613778330385685e-02</leafValues></_>
        <_>
          <internalNodes>
            0 -1 62 -681574403 -6349345 1531391807 -1107412482 -68314449
            -1451571 1057898416 -17106448</internalNodes>
          <leafValues>
            -6.0838592052459717e-01 1.5638381242752075e-01</leafValues></_>
        <_>
          <internalNodes>
            0 -1 67 1203644166 -1479874769 2044714807 -1350666818
            2119908647 -15737867 -1091093701 -369262817</internalNodes>
          <leafValues>
            -4.9634486436843872e-01 2.4393403530120850e-01</leafValues></_>
        <_>
          <internalNodes>
            0 -1 37 521533439 1329797095 -2080310433 2005745271
            -846751845 698294963 -573720853 178070271</internalNodes>
          <leafValues>
            -6.1553841829299927e-01 2.1249485015869141e-01</leafValues></_>
        <_>
          <internalNodes>
            0 -1 71 -1095794860 1595715502 2034439835 927889853
            -1614660303 -860553289 -175112751 -213511</internalNodes>
          <leafValues>
            -4.4023528695106506e-01 3.2628566026687622e-01</leafValues></_>
        <_>
          <internalNodes>
            0 -1 94 526716727 50296703 -9046155 41877429 1870493557
            805207613 1878351173 139755104</internalNodes>
          <leafValues>
            -7.7336317300796509e-01 1.8710376322269440e-01</leafValues></_>
        <_>
          <internalNodes>
            0 -1 54 -332445195 -2130435 -277348993 -293666917 -252149798
            -1074005251 -1143144708 -86868169</internalNodes>
          <leafValues>
            -3.5564893484115601e-01 3.6125689744949341e-01</leafValues></_>
        <_>
          <internalNodes>
            0 -1 27 -302004225 1652927107 -998195737 -269293157
            1609513935 343145713 1458926934 1157103615</internalNodes>
          <leafValues>
            -5.7248079776763916e-01 2.2861707210540771e-01</leafValues></_>
        <_>
          <internalNodes>
            0 -1 79 240912349 410957822 -33587239 1853161462 1945319772
            -1150113 -276927619 -1896284364</internalNodes>
          <leafValues>
            -5.4975432157516479e-01 2.2157017886638641e-01</leafValues></_>
        <_>
          <internalNodes>
            0 -1 23 2001727947 1937756765 218467085 1670224655
            1670210815 1384944880 1242236365 1627854787</internalNodes>
          <leafValues>
            -6.3562506437301636e-01 2.0214228332042694e-01</leafValues></_>
        <_>
          <internalNodes>
            0 -1 92 -806912153 -196610 -131076 -76220436 -838901899
            -671285761 -671115791 -1107829260</internalNodes>
          <leafValues>
            -3.2057669758796692e-01 4.2495262622833252e-01</leafValues></_></weakClassifiers></_>
    <!-- stage 12 -->
    <_>
      <maxWeakCount>13</maxWeakCount>
      <stageThreshold>-2.2615406513214111e+00</stageThreshold>
      <weakClassifiers>
        <_>
          <internalNodes>
            0 -1 60 -3146241 -12587169 -576900197 -2191873 -2113605
            -3163249 -69222465 -65793</internalNodes>
          <leafValues>
            -8.6473143100738525e-01 -1.9947506487369537e-01</leafValues></_>
        <_>
          <internalNodes>
            0 -1 58 -536880744 -1162932583 2010913726 -73515041
            -1076912199 -70779697 1314832305 -352406799</internalNodes>
          <leafValues>
            -6.4819055795669556e-01 3.7981871515512466e-02</leafValues></_>
        <_>
          <internalNodes>
            0 -1 100 1479295710 -11015370 1393619834 -71314716
            1524287726 -621036776 1224670462 -1167073442</internalNodes>
          <leafValues>
            -4.1958683729171753e-01 2.8444156050682068e-01</leafValues></_>
        <_>
          <internalNodes>
            0 -1 15 -536879309 -675294851 -1928804101 1205775825
            -678169232 304971539 1167049643 -2090481793</internalNodes>
          <leafValues>
            -4.9475994706153870e-01 2.5361704826354980e-01</leafValues></_>
        <_>
          <internalNodes>
            0 -1 95 -1904169732 535043732 -1613507875 -1073776680
            936605675 -1081376567 991812139 -1090571036</internalNodes>
          <leafValues>
            -6.5544414520263672e-01 2.2267664968967438e-01</leafValues></_>
        <_>
          <internalNodes>
            0 -1 0 -1089815504 -1911654464 -581258787 -952212240
            -1073955336 -1141783845 830454206 -1371742725</internalNodes>
          <leafValues>
            -4.0136304497718811e-01 2.9760479927062988e-01</leafValues></_>
        <_>
          <internalNodes>
            0 -1 55 -352330417 -1187395439 353079765 -545992185
            -662586378 -1158381381 -343098561 -851428592</internalNodes>
          <leafValues>
            -4.3917670845985413e-01 2.9057464003562927e-01</leafValues></_>
        <_>
          <internalNodes>
            0 -1 75 209334029 -1266745411 -42926113 -17369089 2012970989
            -19957255 2080308925 -1125774431</internalNodes>
          <leafValues>
            -4.8049595952033997e-01 2.6191616058349609e-01</leafValues></_>
        <_>
          <internalNodes>
            0 -1 18 -2117229 -612141089 -511577891 856224175 1945503197
            2048874519 -668763650 2071722559</internalNodes>
          <leafValues>
            -3.9773944020271301e-01 3.1356111168861389e-01</leafValues></_>
        <_>
          <internalNodes>
            0 -1 68 -811605697 -677462369 927277363 -91560041 1800277277
            -284255637 2142213556 -805503681</internalNodes>
          <leafValues>
            -3.6052012443542480e-01 3.5162520408630371e-01</leafValues></_>
        <_>
          <internalNodes>
            0 -1 57 1859767082 -1505563225 -1652974294 -1085375550
            1529600877 -1073876997 -51156004 -457056430</internalNodes>
          <leafValues>
            -4.3799117207527161e-01 2.9021227359771729e-01</leafValues></_>
        <_>
          <internalNodes>
            0 -1 107 -172916882 117341623 -212344866 -1399457805
            -1084921512 -34603033 -293933123 208762801</internalNodes>
          <leafValues>
            -5.1781195402145386e-01 2.3723492026329041e-01</leafValues></_>
        <_>
          <internalNodes>
            0 -1 69 1832329237 713586175 -11141121 -1092642346
            2074048991 -121673293 2147306281 -319489163</internalNodes>
          <leafValues>
            -4.9457237124443054e-01 2.4391999840736389e-01</leafValues></_></weakClassifiers></_></stages>
  <features>
    <_>
      <rect>
        0 0 2 3</rect></_>
    <_>
      <rect>
        0 0 2 5</rect></_>
    <_>
      <rect>
        0 0 3 4</rect></_>
    <_>
      <rect>
        0 0 4 8</rect></_>
    <_>
      <rect>
        0 0 5 5</rect></_>
    <_>
      <rect>
        0 0 10 6</rect></_>
    <_>
      <rect>
        0 0 10 7</rect></_>
    <_>
      <rect>
        0 1 3 6</rect></_>
    <_>
      <rect>
        0 3 4 7</rect></_>
    <_>
      <rect>
        0 4 2 4</rect></_>
    <_>
      <rect>
        0 4 9 5</rect></_>
    <_>
      <rect>
        0 4 10 5</rect></_>
    <_>
      <rect>
        0 5 10 4</rect></_>
    <_>
      <rect>
        0 5 10 5</rect></_>
    <_>
      <rect>
        0 6 6 6</rect></_>
    <_>
      <rect>
        0 6 8 3</rect></_>
    <_>
      <rect>
        0 9 8 5</rect></_>
    <_>
      <rect>
        0 10 1 1</rect></_>
    <_>
      <rect>
        0 11 3 4</rect></_>
    <_>
      <rect>
        0 12 10 4</rect></_>
    <_>
      <rect>
        0 15 10 3</rect></_>
    <_>
      <rect>
        1 2 3 6</rect></_>
    <_>
      <rect>
        1 6 2 1</rect></_>
    <_>
      <rect>
        1 6 9 4</rect></_>
    <_>
      <rect>
        1 11 1 1</rect></_>
    <_>
      <rect>
        1 11 4 4</rect></_>
    <_>
      <rect>
        2 0 9 3</rect></_>
    <_>
      <rect>
        2 6 3 1</rect></_>
    <_>
      <rect>
        2 15 4 3</rect></_>
    <_>
      <rect>
        3 6 1 1</rect></_>
    <_>
      <rect>
        3 6 3 4</rect></_>
    <_>
      <rect>
        3 17 2 2</rect></_>
    <_>
      <rect>
        4 5 6 3</rect></_>
    <_>
      <rect>
        4 8 5 4</rect></_>
    <_>
      <rect>
        4 14 2 3</rect></_>
    <_>
      <rect>
        5 0 3 2</rect></_>
    <_>
      <rect>
        5 0 6 4</rect></_>
    <_>
      <rect>
        5 0 6 8</rect></_>
    <_>
      <rect>
        5 1 6 3</rect></_>
    <_>
      <rect>
        5 2 6 3</rect></_>
    <_>
      <rect>
        5 3 2 1</rect></_>
    <_>
      <rect>
        5 3 6 3</rect></_>
    <_>
      <rect>
        5 5 3 4</rect></_>
    <_>
      <rect>
        5 7 4 4</rect></_>
    <_>
      <rect>
        5 18 5 2</rect></_>
    <_>
      <rect>
        6 0 4 3</rect></_>
    <_>
      <rect>
        6 0 4 7</rect></_>
    <_>
      <rect>
        6 0 5 4</rect></_>
    <_>
      <rect>
        6 0 8 8</rect></_>
    <_>
      <rect>
        6 1 6 4</rect></_>
    <_>
      <rect>
        6 2 1 1</rect></_>
    <_>
      <rect>
        6 2 2 2</rect></_>
    <_>
      <rect>
        6 7 3 3</rect></_>
    <_>
      <rect>
        6 7 5 3</rect></_>
    <_>
      <rect>
        6 20 1 1</rect></_>
    <_>
      <rect>
        7 0 5 2</rect></_>
    <_>
      <rect>
        7 1 5 4</rect></_>
    <_>
      <rect>
        7 5 4 1</rect></_>
    <_>
      <rect>
        7 9 4 4</rect></_>
    <_>
      <rect>
        7 9 5 4</rect></_>
    <_>
      <rect>
        7 10 5 3</rect></_>
    <_>
      <rect>
        7 11 5 3</rect></_>
    <_>
      <rect>
        7 12 4 3</rect></_>
    <_>
      <rect>
        7 18 2 2</rect></_>
    <_>
      <rect>
        8 0 5 8</rect></_>
    <_>
      <rect>
        8 7 5 4</rect></_>
    <_>
      <rect>
        8 10 5 3</rect></_>
    <_>
      <rect>
        9 4 3 2</rect></_>
    <_>
      <rect>
        9 13 4 2</rect></_>
    <_>
      <rect>
        9 20 2 1</rect></_>
    <_>
      <rect>
        10 0 4 2</rect></_>
    <_>
      <rect>
        10 7 4 4</rect></_>
    <_>
      <rect>
        10 10 4 3</rect></_>
    <_>
      <rect>
        11 0 4 2</rect></_>
    <_>
      <rect>
        11 1 1 1</rect></_>
    <_>
      <rect>
        11 6 1 2</rect></_>
    <_>
      <rect>
        11 8 2 2</rect></_>
    <_>
      <rect>
        12 2 6 7</rect></_>
    <_>
      <rect>
        12 6 4 4</rect></_>
    <_>
      <rect>
        12 10 1 2</rect></_>
    <_>
      <rect>
        12 12 6 4</rect></_>
    <_>
      <rect>
        12 21 2 1</rect></_>
    <_>
      <rect>
        13 0 4 2</rect></_>
    <_>
      <rect>
        14 20 2 1</rect></_>
    <_>
      <rect>
        15 0 5 4</rect></_>
    <_>
      <rect>
        15 13 2 2</rect></_>
    <_>
      <rect>
        15 18 2 2</rect></_>
    <_>
      <rect>
        15 18 3 2</rect></_>
    <_>
      <rect>
        15 21 1 1</rect></_>
    <_>
      <rect>
        16 20 1 1</rect></_>
    <_>
      <rect>
        17 0 3 2</rect></_>
    <_>
      <rect>
        17 0 4 6</rect></_>
    <_>
      <rect>
        17 9 2 3</rect></_>
    <_>
      <rect>
        18 1 1 1</rect></_>
    <_>
      <rect>
        18 8 1 1</rect></_>
    <_>
      <rect>
        19 15 2 3</rect></_>
    <_>
      <rect>
        19 19 1 1</rect></_>
    <_>
      <rect>
        20 1 2 3</rect></_>
    <_>
      <rect>
        20 3 3 5</rect></_>
    <_>
      <rect>
        20 19 1 1</rect></_>
    <_>
      <rect>
        21 0 3 3</rect></_>
    <_>
      <rect>
        21 11 3 4</rect></_>
    <_>
      <rect>
        21 12 3 4</rect></_>
    <_>
      <rect>
        21 17 1 2</rect></_>
    <_>
      <rect>
        22 2 1 2</rect></_>
    <_>
      <rect>
        22 3 2 2</rect></_>
    <_>
      <rect>
        23 5 2 3</rect></_>
    <_>
      <rect>
        23 7 1 2</rect></_>
    <_>
      <rect>
        23 13 2 2</rect></_>
    <_>
      <rect>
        23 17 1 1</rect></_>
    <_>
      <rect>
        24 6 2 2</rect></_>
    <_>
      <rect>
        24 14 2 1</rect></_></features></cascade>
</opencv_storage>
